0.015342
-0.116780
0.032626
0.213055
0.117953
-0.065017
-0.100027
-0.104804
-0.021521
-0.076708
0.009253
-0.074380
-0.046492
-0.065302
0.080472
-0.111273
-0.061754
0.029294
0.068685
-0.027255
0.132349
-0.050372
0.096336
-0.084320
0.023555
-0.044191
0.162572
0.044994
-0.068104
-0.135999
-0.106759
0.000798
-0.125378
-0.028167
0.079268
-0.034412
0.134826
-0.039502
-0.086455
0.121153
0.093703
-0.010177
0.052085
-0.048057
0.097232
0.017229
-0.011665
0.048988
0.045588
0.091496
-0.065550
0.051033
-0.209871
0.045980
-0.068731
-0.042492
0.023327
0.056452
0.154665
-0.129009
-0.111144
-0.050179
0.084929
-0.038904
0.007134
0.157829
0.146497
0.107961
-0.021597
0.193345
-0.046447
0.191886
-0.200411
-0.155645
0.150592
-0.084911
0.001815
0.142865
-0.094330
0.121124
-0.018995
-0.024292
-0.013188
-0.000303
-0.006053
-0.029752
-0.067568
-0.189504
0.188104
0.068903
0.005623
-0.284459
0.126685
-0.047656
-0.063194
0.139988
0.105459
-0.039044
-0.040001
0.133439
-0.019247
-0.038839
-0.065449
-0.105316
0.073813
-0.021104
-0.176509
0.087686
-0.152192
-0.049174
0.046069
0.089067
-0.020262
-0.183019
-0.103695
0.025419
-0.002531
0.111845
-0.035134
0.039836
